<?xml version="1.0"?>
<opencv_storage>
<cascade>
  <stageType>BOOST</stageType>
  <featureType>HAAR</featureType>
  <height>24</height>
  <width>24</width>
  <stageParams>
    <boostType>GAB</boostType>
    <minHitRate>9.9500000476837158e-01</minHitRate>
    <maxFalseAlarm>5.0000000000000000e-01</maxFalseAlarm>
    <weightTrimRate>9.4999998807907104e-01</weightTrimRate>
    <maxDepth>1</maxDepth>
    <maxWeakCount>100</maxWeakCount></stageParams>
  <featureParams>
    <maxCatCount>0</maxCatCount>
    <featSize>1</featSize>
    <mode>BASIC</mode></featureParams>
  <stageNum>11</stageNum>
  <stages>
    <!-- stage 0 -->
    <_>
      <maxWeakCount>3</maxWeakCount>
      <stageThreshold>-1.0738322734832764e+00</stageThreshold>
      <weakClassifiers>
        <_>
          <internalNodes>
            0 -1 8 -8.8456077501177788e-03</internalNodes>
          <leafValues>
            8.8108110427856445e-01 -9.4392526149749756e-01</leafValues></_>
        <_>
          <internalNodes>
            0 -1 15 3.3939108252525330e-02</internalNodes>
          <leafValues>
            -8.5193133354187012e-01 7.9520332813262939e-01</leafValues></_>
        <_>
          <internalNodes>
            0 -1 1 1.2500113248825073e-01</internalNodes>
          <leafValues>
            -8.7954354286193848e-01 7.2202426195144653e-01</leafValues></_></weakClassifiers></_>
    <!-- stage 1 -->
    <_>
      <maxWeakCount>3</maxWeakCount>
      <stageThreshold>-1.1642457246780396e+00</stageThreshold>
      <weakClassifiers>
        <_>
          <internalNodes>
            0 -1 14 8.0642569810152054e-03</internalNodes>
          <leafValues>
            -9.0476191043853760e-01 9.1860467195510864e-01</leafValues></_>
        <_>
          <internalNodes>
            0 -1 31 -5.8772629126906395e-03</internalNodes>
          <leafValues>
            7.7679687738418579e-01 -7.9064524173736572e-01</leafValues></_>
        <_>
          <internalNodes>
            0 -1 4 4.5133516192436218e-02</internalNodes>
          <leafValues>
            -9.7246086597442627e-01 5.3116148710250854e-01</leafValues></_></weakClassifiers></_>
    <!-- stage 2 -->
    <_>
      <maxWeakCount>4</maxWeakCount>
      <stageThreshold>-1.9542722702026367e+00</stageThreshold>
      <weakClassifiers>
        <_>
          <internalNodes>
            0 -1 9 -1.9820347428321838e-02</internalNodes>
          <leafValues>
            8.3333331346511841e-01 -9.5249408483505249e-01</leafValues></_>
        <_>
          <internalNodes>
            0 -1 20 -5.4482612758874893e-03</internalNodes>
          <leafValues>
            5.4475867748260498e-01 -8.9279514551162720e-01</leafValues></_>
        <_>
          <internalNodes>
            0 -1 32 -1.0044401511549950e-02</internalNodes>
          <leafValues>
            8.6177343130111694e-01 -6.3362443447113037e-01</leafValues></_>
        <_>
          <internalNodes>
            0 -1 18 -4.4840355403721333e-03</internalNodes>
          <leafValues>
            5.2464133501052856e-01 -1.</leafValues></_></weakClassifiers></_>
    <!-- stage 3 -->
    <_>
      <maxWeakCount>3</maxWeakCount>
      <stageThreshold>-1.0887215137481689e+00</stageThreshold>
      <weakClassifiers>
        <_>
          <internalNodes>
            0 -1 27 -1.2490956112742424e-02</internalNodes>
          <leafValues>
            7.4358975887298584e-01 -9.2344498634338379e-01</leafValues></_>
        <_>
          <internalNodes>
            0 -1 34 -6.4004533924162388e-03</internalNodes>
          <leafValues>
            8.6871826648712158e-01 -7.4080538749694824e-01</leafValues></_>
        <_>
          <internalNodes>
            0 -1 5 3.3550879452377558e-03</internalNodes>
          <leafValues>
            -9.2470502853393555e-01 5.7552880048751831e-01</leafValues></_></weakClassifiers></_>
    <!-- stage 4 -->
    <_>
      <maxWeakCount>3</maxWeakCount>
      <stageThreshold>-1.2201095819473267e+00</stageThreshold>
      <weakClassifiers>
        <_>
          <internalNodes>
            0 -1 7 -1.3409635052084923e-02</internalNodes>
          <leafValues>
            6.4319247007369995e-01 -9.4499999284744263e-01</leafValues></_>
        <_>
          <internalNodes>
            0 -1 32 -1.0247185826301575e-02</internalNodes>
          <leafValues>
            8.0673199892044067e-01 -7.5245118141174316e-01</leafValues></_>
        <_>
          <internalNodes>
            0 -1 0 -2.5384025648236275e-03</internalNodes>
          <leafValues>
            4.7734159231185913e-01 -1.</leafValues></_></weakClassifiers></_>
    <!-- stage 5 -->
    <_>
      <maxWeakCount>4</maxWeakCount>
      <stageThreshold>-1.7161176204681396e+00</stageThreshold>
      <weakClassifiers>
        <_>
          <internalNodes>
            0 -1 28 1.1481404304504395e-02</internalNodes>
          <leafValues>
            -8.9047616720199585e-01 6.8911916017532349e-01</leafValues></_>
        <_>
          <internalNodes>
            0 -1 23 -1.0206828825175762e-02</internalNodes>
          <leafValues>
            4.8273983597755432e-01 -8.1848907470703125e-01</leafValues></_>
        <_>
          <internalNodes>
            0 -1 36 8.1674698740243912e-03</internalNodes>
          <leafValues>
            -6.0940283536911011e-01 8.3969372510910034e-01</leafValues></_>
        <_>
          <internalNodes>
            0 -1 13 3.1332276761531830e-02</internalNodes>
          <leafValues>
            -8.2778918743133545e-01 6.0225039720535278e-01</leafValues></_></weakClassifiers></_>
    <!-- stage 6 -->
    <_>
      <maxWeakCount>4</maxWeakCount>
      <stageThreshold>-1.7329621315002441e+00</stageThreshold>
      <weakClassifiers>
        <_>
          <internalNodes>
            0 -1 10 8.8122282177209854e-03</internalNodes>
          <leafValues>
            -9.2059552669525146e-01 6.1904764175415039e-01</leafValues></_>
        <_>
          <internalNodes>
            0 -1 3 2.4874985218048096e-02</internalNodes>
          <leafValues>
            -6.7476582527160645e-01 9.5561313629150391e-01</leafValues></_>
        <_>
          <internalNodes>
            0 -1 30 -6.6606272011995316e-03</internalNodes>
          <leafValues>
            7.1128958463668823e-01 -7.3209905624389648e-01</leafValues></_>
        <_>
          <internalNodes>
            0 -1 21 -4.7361107135657221e-05</internalNodes>
          <leafValues>
            5.9449821710586548e-01 -9.1183710098266602e-01</leafValues></_></weakClassifiers></_>
    <!-- stage 7 -->
    <_>
      <maxWeakCount>3</maxWeakCount>
      <stageThreshold>-1.1956331729888916e+00</stageThreshold>
      <weakClassifiers>
        <_>
          <internalNodes>
            0 -1 22 1.0554919019341469e-02</internalNodes>
          <leafValues>
            -8.7066972255706787e-01 7.5555557012557983e-01</leafValues></_>
        <_>
          <internalNodes>
            0 -1 29 -8.2753766328096390e-03</internalNodes>
          <leafValues>
            5.7305437326431274e-01 -7.9903233051300049e-01</leafValues></_>
        <_>
          <internalNodes>
            0 -1 26 3.0270459319581278e-05</internalNodes>
          <leafValues>
            -9.9472850561141968e-01 4.7406888008117676e-01</leafValues></_></weakClassifiers></_>
    <!-- stage 8 -->
    <_>
      <maxWeakCount>4</maxWeakCount>
      <stageThreshold>-9.7866970300674438e-01</stageThreshold>
      <weakClassifiers>
        <_>
          <internalNodes>
            0 -1 35 3.8518169894814491e-03</internalNodes>
          <leafValues>
            -8.3847981691360474e-01 5.8333331346511841e-01</leafValues></_>
        <_>
          <internalNodes>
            0 -1 17 2.2892823835718445e-05</internalNodes>
          <leafValues>
            -9.4190752506256104e-01 4.1316699981689453e-01</leafValues></_>
        <_>
          <internalNodes>
            0 -1 11 7.1684420108795166e-02</internalNodes>
          <leafValues>
            -9.5658934116363525e-01 4.1210237145423889e-01</leafValues></_>
        <_>
          <internalNodes>
            0 -1 16 2.2329382773023099e-05</internalNodes>
          <leafValues>
            -9.1963052749633789e-01 4.0323242545127869e-01</leafValues></_></weakClassifiers></_>
    <!-- stage 9 -->
    <_>
      <maxWeakCount>4</maxWeakCount>
      <stageThreshold>-1.3437535762786865e+00</stageThreshold>
      <weakClassifiers>
        <_>
          <internalNodes>
            0 -1 6 3.0634864233434200e-03</internalNodes>
          <leafValues>
            -7.4476987123489380e-01 8.5185188055038452e-01</leafValues></_>
        <_>
          <internalNodes>
            0 -1 33 1.2390386313199997e-02</internalNodes>
          <leafValues>
            -5.9336292743682861e-01 8.6155807971954346e-01</leafValues></_>
        <_>
          <internalNodes>
            0 -1 25 -5.0788680091500282e-03</internalNodes>
          <leafValues>
            8.6897408962249756e-01 -5.3763312101364136e-01</leafValues></_>
        <_>
          <internalNodes>
            0 -1 16 6.7807559389621019e-04</internalNodes>
          <leafValues>
            5.3201240301132202e-01 -9.8988407850265503e-01</leafValues></_></weakClassifiers></_>
    <!-- stage 10 -->
    <_>
      <maxWeakCount>4</maxWeakCount>
      <stageThreshold>-1.4958940744400024e+00</stageThreshold>
      <weakClassifiers>
        <_>
          <internalNodes>
            0 -1 12 1.9536368548870087e-02</internalNodes>
          <leafValues>
            -9.0330791473388672e-01 5.1818180084228516e-01</leafValues></_>
        <_>
          <internalNodes>
            0 -1 2 6.8790376186370850e-02</internalNodes>
          <leafValues>
            -6.5221881866455078e-01 7.9918068647384644e-01</leafValues></_>
        <_>
          <internalNodes>
            0 -1 19 -2.8220191597938538e-02</internalNodes>
          <leafValues>
            9.8100292682647705e-01 -4.9120780825614929e-01</leafValues></_>
        <_>
          <internalNodes>
            0 -1 24 -2.0319338364060968e-04</internalNodes>
          <leafValues>
            -1. 5.5084037780761719e-01</leafValues></_></weakClassifiers></_></stages>
  <features>
    <_>
      <rects>
        <_>
          0 0 18 4 -1.</_>
        <_>
          0 0 9 2 2.</_>
        <_>
          9 2 9 2 2.</_></rects>
      <tilted>0</tilted></_>
    <_>
      <rects>
        <_>
          0 0 18 14 -1.</_>
        <_>
          9 0 9 14 2.</_></rects>
      <tilted>0</tilted></_>
    <_>
      <rects>
        <_>
          0 6 12 6 -1.</_>
        <_>
          0 8 12 2 3.</_></rects>
      <tilted>0</tilted></_>
    <_>
      <rects>
        <_>
          0 7 14 2 -1.</_>
        <_>
          0 8 14 1 2.</_></rects>
      <tilted>0</tilted></_>
    <_>
      <rects>
        <_>
          1 0 8 12 -1.</_>
        <_>
          1 6 8 6 2.</_></rects>
      <tilted>0</tilted></_>
    <_>
      <rects>
        <_>
          2 4 14 3 -1.</_>
        <_>
          2 5 14 1 3.</_></rects>
      <tilted>0</tilted></_>
    <_>
      <rects>
        <_>
          2 20 2 2 -1.</_>
        <_>
          2 20 1 1 2.</_>
        <_>
          3 21 1 1 2.</_></rects>
      <tilted>0</tilted></_>
    <_>
      <rects>
        <_>
          2 22 6 2 -1.</_>
        <_>
          4 22 2 2 3.</_></rects>
      <tilted>0</tilted></_>
    <_>
      <rects>
        <_>
          2 23 6 1 -1.</_>
        <_>
          4 23 2 1 3.</_></rects>
      <tilted>0</tilted></_>
    <_>
      <rects>
        <_>
          3 20 6 4 -1.</_>
        <_>
          5 20 2 4 3.</_></rects>
      <tilted>0</tilted></_>
    <_>
      <rects>
        <_>
          4 20 4 4 -1.</_>
        <_>
          4 20 2 2 2.</_>
        <_>
          6 22 2 2 2.</_></rects>
      <tilted>0</tilted></_>
    <_>
      <rects>
        <_>
          5 2 11 18 -1.</_>
        <_>
          5 8 11 6 3.</_></rects>
      <tilted>0</tilted></_>
    <_>
      <rects>
        <_>
          5 16 4 8 -1.</_>
        <_>
          5 16 2 4 2.</_>
        <_>
          7 20 2 4 2.</_></rects>
      <tilted>0</tilted></_>
    <_>
      <rects>
        <_>
          6 0 6 23 -1.</_>
        <_>
          9 0 3 23 2.</_></rects>
      <tilted>0</tilted></_>
    <_>
      <rects>
        <_>
          6 16 2 8 -1.</_>
        <_>
          6 16 1 4 2.</_>
        <_>
          7 20 1 4 2.</_></rects>
      <tilted>0</tilted></_>
    <_>
      <rects>
        <_>
          7 7 9 6 -1.</_>
        <_>
          7 9 9 2 3.</_></rects>
      <tilted>0</tilted></_>
    <_>
      <rects>
        <_>
          8 17 2 1 -1.</_>
        <_>
          9 17 1 1 2.</_></rects>
      <tilted>0</tilted></_>
    <_>
      <rects>
        <_>
          8 22 2 1 -1.</_>
        <_>
          9 22 1 1 2.</_></rects>
      <tilted>0</tilted></_>
    <_>
      <rects>
        <_>
          9 20 12 4 -1.</_>
        <_>
          9 20 6 2 2.</_>
        <_>
          15 22 6 2 2.</_></rects>
      <tilted>0</tilted></_>
    <_>
      <rects>
        <_>
          10 21 14 2 -1.</_>
        <_>
          10 21 7 1 2.</_>
        <_>
          17 22 7 1 2.</_></rects>
      <tilted>0</tilted></_>
    <_>
      <rects>
        <_>
          13 22 9 1 -1.</_>
        <_>
          16 22 3 1 3.</_></rects>
      <tilted>0</tilted></_>
    <_>
      <rects>
        <_>
          14 10 1 2 -1.</_>
        <_>
          14 11 1 1 2.</_></rects>
      <tilted>0</tilted></_>
    <_>
      <rects>
        <_>
          15 17 9 1 -1.</_>
        <_>
          18 17 3 1 3.</_></rects>
      <tilted>0</tilted></_>
    <_>
      <rects>
        <_>
          15 20 6 4 -1.</_>
        <_>
          15 20 3 2 2.</_>
        <_>
          18 22 3 2 2.</_></rects>
      <tilted>0</tilted></_>
    <_>
      <rects>
        <_>
          15 21 1 3 -1.</_>
        <_>
          15 22 1 1 3.</_></rects>
      <tilted>0</tilted></_>
    <_>
      <rects>
        <_>
          15 21 4 2 -1.</_>
        <_>
          15 21 2 1 2.</_>
        <_>
          17 22 2 1 2.</_></rects>
      <tilted>0</tilted></_>
    <_>
      <rects>
        <_>
          15 22 1 2 -1.</_>
        <_>
          15 23 1 1 2.</_></rects>
      <tilted>0</tilted></_>
    <_>
      <rects>
        <_>
          16 18 4 6 -1.</_>
        <_>
          16 18 2 3 2.</_>
        <_>
          18 21 2 3 2.</_></rects>
      <tilted>0</tilted></_>
    <_>
      <rects>
        <_>
          16 19 6 2 -1.</_>
        <_>
          19 19 3 2 2.</_></rects>
      <tilted>0</tilted></_>
    <_>
      <rects>
        <_>
          16 22 6 2 -1.</_>
        <_>
          18 22 2 2 3.</_></rects>
      <tilted>0</tilted></_>
    <_>
      <rects>
        <_>
          17 20 4 4 -1.</_>
        <_>
          17 20 2 2 2.</_>
        <_>
          19 22 2 2 2.</_></rects>
      <tilted>0</tilted></_>
    <_>
      <rects>
        <_>
          17 23 6 1 -1.</_>
        <_>
          19 23 2 1 3.</_></rects>
      <tilted>0</tilted></_>
    <_>
      <rects>
        <_>
          18 0 3 8 -1.</_>
        <_>
          19 0 1 8 3.</_></rects>
      <tilted>0</tilted></_>
    <_>
      <rects>
        <_>
          18 21 6 1 -1.</_>
        <_>
          20 21 2 1 3.</_></rects>
      <tilted>0</tilted></_>
    <_>
      <rects>
        <_>
          20 21 4 2 -1.</_>
        <_>
          22 21 2 2 2.</_></rects>
      <tilted>0</tilted></_>
    <_>
      <rects>
        <_>
          21 0 3 2 -1.</_>
        <_>
          22 0 1 2 3.</_></rects>
      <tilted>0</tilted></_>
    <_>
      <rects>
        <_>
          21 18 1 6 -1.</_>
        <_>
          21 21 1 3 2.</_></rects>
      <tilted>0</tilted></_></features></cascade>
</opencv_storage>
