<?xml version="1.0"?>
<opencv_storage>
<cascade>
  <stageType>BOOST</stageType>
  <featureType>HAAR</featureType>
  <height>20</height>
  <width>20</width>
  <stageParams>
    <boostType>GAB</boostType>
    <minHitRate>9.9500000476837158e-01</minHitRate>
    <maxFalseAlarm>5.0000000000000000e-01</maxFalseAlarm>
    <weightTrimRate>9.4999998807907104e-01</weightTrimRate>
    <maxDepth>1</maxDepth>
    <maxWeakCount>100</maxWeakCount></stageParams>
  <featureParams>
    <maxCatCount>0</maxCatCount>
    <featSize>1</featSize>
    <mode>BASIC</mode></featureParams>
  <stageNum>19</stageNum>
  <stages>
    <!-- stage 0 -->
    <_>
      <maxWeakCount>3</maxWeakCount>
      <stageThreshold>-9.8770111799240112e-01</stageThreshold>
      <weakClassifiers>
        <_>
          <internalNodes>
            0 -1 66 2.3890057578682899e-02</internalNodes>
          <leafValues>
            -8.3018869161605835e-01 7.8571426868438721e-01</leafValues></_>
        <_>
          <internalNodes>
            0 -1 64 1.6865933313965797e-02</internalNodes>
          <leafValues>
            -8.5690957307815552e-01 5.1383763551712036e-01</leafValues></_>
        <_>
          <internalNodes>
            0 -1 48 3.1664662063121796e-02</internalNodes>
          <leafValues>
            -6.7135006189346313e-01 7.1300697326660156e-01</leafValues></_></weakClassifiers></_>
    <!-- stage 1 -->
    <_>
      <maxWeakCount>4</maxWeakCount>
      <stageThreshold>-1.2878496646881104e+00</stageThreshold>
      <weakClassifiers>
        <_>
          <internalNodes>
            0 -1 50 3.7261106073856354e-02</internalNodes>
          <leafValues>
            -7.3652696609497070e-01 7.0588237047195435e-01</leafValues></_>
        <_>
          <internalNodes>
            0 -1 32 -7.4752010405063629e-02</internalNodes>
          <leafValues>
            8.5015648603439331e-01 -5.1125311851501465e-01</leafValues></_>
        <_>
          <internalNodes>
            0 -1 70 4.4589862227439880e-03</internalNodes>
          <leafValues>
            -6.6743224859237671e-01 5.5550771951675415e-01</leafValues></_>
        <_>
          <internalNodes>
            0 -1 55 -3.9943654090166092e-02</internalNodes>
          <leafValues>
            6.2736266851425171e-01 -5.4839110374450684e-01</leafValues></_></weakClassifiers></_>
    <!-- stage 2 -->
    <_>
      <maxWeakCount>5</maxWeakCount>
      <stageThreshold>-7.3276948928833008e-01</stageThreshold>
      <weakClassifiers>
        <_>
          <internalNodes>
            0 -1 49 4.6520647592842579e-03</internalNodes>
          <leafValues>
            -8.0136984586715698e-01 3.2727271318435669e-01</leafValues></_>
        <_>
          <internalNodes>
            0 -1 73 1.0352456942200661e-02</internalNodes>
          <leafValues>
            -5.4453009366989136e-01 6.9779849052429199e-01</leafValues></_>
        <_>
          <internalNodes>
            0 -1 21 -1.2965446710586548e-01</internalNodes>
          <leafValues>
            7.7887922525405884e-01 -3.8776654005050659e-01</leafValues></_>
        <_>
          <internalNodes>
            0 -1 18 2.6540921535342932e-03</internalNodes>
          <leafValues>
            -8.5133361816406250e-01 3.8069632649421692e-01</leafValues></_>
        <_>
          <internalNodes>
            0 -1 75 7.7908355742692947e-03</internalNodes>
          <leafValues>
            -4.4305771589279175e-01 7.1332097053527832e-01</leafValues></_></weakClassifiers></_>
    <!-- stage 3 -->
    <_>
      <maxWeakCount>5</maxWeakCount>
      <stageThreshold>-9.1517698764801025e-01</stageThreshold>
      <weakClassifiers>
        <_>
          <internalNodes>
            0 -1 65 3.3648069947957993e-02</internalNodes>
          <leafValues>
            -7.8064513206481934e-01 4.7826087474822998e-01</leafValues></_>
        <_>
          <internalNodes>
            0 -1 0 -9.0362906455993652e-02</internalNodes>
          <leafValues>
            8.2126575708389282e-01 -5.1357787847518921e-01</leafValues></_>
        <_>
          <internalNodes>
            0 -1 52 -4.8138969577848911e-03</internalNodes>
          <leafValues>
            5.1906996965408325e-01 -5.7755100727081299e-01</leafValues></_>
        <_>
          <internalNodes>
            0 -1 90 -2.8855781420134008e-04</internalNodes>
          <leafValues>
            -7.0199418067932129e-01 4.4565561413764954e-01</leafValues></_>
        <_>
          <internalNodes>
            0 -1 34 3.3152673393487930e-02</internalNodes>
          <leafValues>
            -5.4923993349075317e-01 5.6197023391723633e-01</leafValues></_></weakClassifiers></_>
    <!-- stage 4 -->
    <_>
      <maxWeakCount>4</maxWeakCount>
      <stageThreshold>-1.1814482212066650e+00</stageThreshold>
      <weakClassifiers>
        <_>
          <internalNodes>
            0 -1 57 4.5566804707050323e-02</internalNodes>
          <leafValues>
            -8.6147183179855347e-01 5.8479532599449158e-03</leafValues></_>
        <_>
          <internalNodes>
            0 -1 47 -5.6644181313458830e-05</internalNodes>
          <leafValues>
            2.5834709405899048e-01 -6.8089306354522705e-01</leafValues></_>
        <_>
          <internalNodes>
            0 -1 23 -1.3308122754096985e-02</internalNodes>
          <leafValues>
            -8.9761501550674438e-01 2.3168538510799408e-01</leafValues></_>
        <_>
          <internalNodes>
            0 -1 4 1.9341520965099335e-02</internalNodes>
          <leafValues>
            3.1929156184196472e-01 -8.0555528402328491e-01</leafValues></_></weakClassifiers></_>
    <!-- stage 5 -->
    <_>
      <maxWeakCount>5</maxWeakCount>
      <stageThreshold>-1.0579456090927124e+00</stageThreshold>
      <weakClassifiers>
        <_>
          <internalNodes>
            0 -1 68 -1.6713047400116920e-02</internalNodes>
          <leafValues>
            7.5000000000000000e-01 -6.6101694107055664e-01</leafValues></_>
        <_>
          <internalNodes>
            0 -1 57 4.5532509684562683e-02</internalNodes>
          <leafValues>
            -7.4069911241531372e-01 3.7206226587295532e-01</leafValues></_>
        <_>
          <internalNodes>
            0 -1 9 -5.9480890631675720e-03</internalNodes>
          <leafValues>
            4.2254897952079773e-01 -5.2624696493148804e-01</leafValues></_>
        <_>
          <internalNodes>
            0 -1 53 1.5787627547979355e-02</internalNodes>
          <leafValues>
            -3.4284934401512146e-01 7.0079773664474487e-01</leafValues></_>
        <_>
          <internalNodes>
            0 -1 13 -6.9154903758317232e-04</internalNodes>
          <leafValues>
            -9.8449236154556274e-01 2.6407083868980408e-01</leafValues></_></weakClassifiers></_>
    <!-- stage 6 -->
    <_>
      <maxWeakCount>5</maxWeakCount>
      <stageThreshold>-6.3280171155929565e-01</stageThreshold>
      <weakClassifiers>
        <_>
          <internalNodes>
            0 -1 59 8.3246473222970963e-03</internalNodes>
          <leafValues>
            -6.8615382909774780e-01 3.2467532157897949e-01</leafValues></_>
        <_>
          <internalNodes>
            0 -1 14 5.8234488824382424e-04</internalNodes>
          <leafValues>
            2.4697190523147583e-01 -8.8742768764495850e-01</leafValues></_>
        <_>
          <internalNodes>
            0 -1 44 -4.8290997743606567e-02</internalNodes>
          <leafValues>
            -9.2503023147583008e-01 2.2580556571483612e-01</leafValues></_>
        <_>
          <internalNodes>
            0 -1 10 -1.2068622745573521e-03</internalNodes>
          <leafValues>
            2.9338857531547546e-01 -8.3348518610000610e-01</leafValues></_>
        <_>
          <internalNodes>
            0 -1 79 1.4612665399909019e-02</internalNodes>
          <leafValues>
            -5.8924353122711182e-01 4.5772740244865417e-01</leafValues></_></weakClassifiers></_>
    <!-- stage 7 -->
    <_>
      <maxWeakCount>5</maxWeakCount>
      <stageThreshold>-9.8937857151031494e-01</stageThreshold>
      <weakClassifiers>
        <_>
          <internalNodes>
            0 -1 60 7.5429547578096390e-03</internalNodes>
          <leafValues>
            -7.4570447206497192e-01 1.7117117345333099e-01</leafValues></_>
        <_>
          <internalNodes>
            0 -1 25 2.3478609509766102e-03</internalNodes>
          <leafValues>
            1.6288170218467712e-01 -8.1312453746795654e-01</leafValues></_>
        <_>
          <internalNodes>
            0 -1 93 -4.6234994078986347e-04</internalNodes>
          <leafValues>
            -8.2558971643447876e-01 2.2905980050563812e-01</leafValues></_>
        <_>
          <internalNodes>
            0 -1 69 6.5710637718439102e-03</internalNodes>
          <leafValues>
            -6.1828058958053589e-01 3.2003307342529297e-01</leafValues></_>
        <_>
          <internalNodes>
            0 -1 84 4.4614356011152267e-04</internalNodes>
          <leafValues>
            2.6302263140678406e-01 -8.1787484884262085e-01</leafValues></_></weakClassifiers></_>
    <!-- stage 8 -->
    <_>
      <maxWeakCount>6</maxWeakCount>
      <stageThreshold>-1.2554647922515869e+00</stageThreshold>
      <weakClassifiers>
        <_>
          <internalNodes>
            0 -1 82 2.5723125785589218e-02</internalNodes>
          <leafValues>
            -6.7469877004623413e-01 3.7142857909202576e-01</leafValues></_>
        <_>
          <internalNodes>
            0 -1 28 1.6220968216657639e-02</internalNodes>
          <leafValues>
            -4.5454928278923035e-01 5.2780252695083618e-01</leafValues></_>
        <_>
          <internalNodes>
            0 -1 29 -8.6461380124092102e-04</internalNodes>
          <leafValues>
            -9.1308212280273438e-01 2.2337825596332550e-01</leafValues></_>
        <_>
          <internalNodes>
            0 -1 29 5.5301911197602749e-04</internalNodes>
          <leafValues>
            3.4160262346267700e-01 -6.6339266300201416e-01</leafValues></_>
        <_>
          <internalNodes>
            0 -1 51 2.4248506873846054e-02</internalNodes>
          <leafValues>
            1.5953104197978973e-01 -9.0740525722503662e-01</leafValues></_>
        <_>
          <internalNodes>
            0 -1 61 1.3217166997492313e-03</internalNodes>
          <leafValues>
            -8.2808512449264526e-01 2.4481850862503052e-01</leafValues></_></weakClassifiers></_>
    <!-- stage 9 -->
    <_>
      <maxWeakCount>5</maxWeakCount>
      <stageThreshold>-1.0549385547637939e+00</stageThreshold>
      <weakClassifiers>
        <_>
          <internalNodes>
            0 -1 2 -1.4129203557968140e-01</internalNodes>
          <leafValues>
            4.3750000000000000e-01 -6.6863906383514404e-01</leafValues></_>
        <_>
          <internalNodes>
            0 -1 78 2.3749358661007136e-04</internalNodes>
          <leafValues>
            -8.1819152832031250e-01 2.2872421145439148e-01</leafValues></_>
        <_>
          <internalNodes>
            0 -1 56 6.4508831128478050e-03</internalNodes>
          <leafValues>
            -5.2571982145309448e-01 4.1154807806015015e-01</leafValues></_>
        <_>
          <internalNodes>
            0 -1 45 1.6346413642168045e-02</internalNodes>
          <leafValues>
            4.2509263753890991e-01 -6.2363398075103760e-01</leafValues></_>
        <_>
          <internalNodes>
            0 -1 42 4.0460035204887390e-02</internalNodes>
          <leafValues>
            -3.5487434267997742e-01 6.4397788047790527e-01</leafValues></_></weakClassifiers></_>
    <!-- stage 10 -->
    <_>
      <maxWeakCount>5</maxWeakCount>
      <stageThreshold>-8.5575127601623535e-01</stageThreshold>
      <weakClassifiers>
        <_>
          <internalNodes>
            0 -1 27 -3.3612355589866638e-02</internalNodes>
          <leafValues>
            9.2307692766189575e-01 -5.9042555093765259e-01</leafValues></_>
        <_>
          <internalNodes>
            0 -1 16 1.5802647918462753e-02</internalNodes>
          <leafValues>
            -6.6904819011688232e-01 3.9689862728118896e-01</leafValues></_>
        <_>
          <internalNodes>
            0 -1 77 -3.1848256476223469e-03</internalNodes>
          <leafValues>
            5.7529348134994507e-01 -3.4894147515296936e-01</leafValues></_>
        <_>
          <internalNodes>
            0 -1 7 -4.3707003351300955e-04</internalNodes>
          <leafValues>
            -8.0476987361907959e-01 2.7395111322402954e-01</leafValues></_>
        <_>
          <internalNodes>
            0 -1 76 -5.1820129156112671e-03</internalNodes>
          <leafValues>
            4.9170705676078796e-01 -4.4552212953567505e-01</leafValues></_></weakClassifiers></_>
    <!-- stage 11 -->
    <_>
      <maxWeakCount>4</maxWeakCount>
      <stageThreshold>-7.0237904787063599e-01</stageThreshold>
      <weakClassifiers>
        <_>
          <internalNodes>
            0 -1 5 -1.5050795674324036e-01</internalNodes>
          <leafValues>
            6.7441862821578979e-01 -6.3231199979782104e-01</leafValues></_>
        <_>
          <internalNodes>
            0 -1 62 -4.7508301213383675e-03</internalNodes>
          <leafValues>
            7.1462053060531616e-01 -3.5403198003768921e-01</leafValues></_>
        <_>
          <internalNodes>
            0 -1 41 -5.1828799769282341e-03</internalNodes>
          <leafValues>
            -9.2716211080551147e-01 2.3358960449695587e-01</leafValues></_>
        <_>
          <internalNodes>
            0 -1 80 6.5553903579711914e-02</internalNodes>
          <leafValues>
            1.4247450232505798e-01 -9.3305492401123047e-01</leafValues></_></weakClassifiers></_>
    <!-- stage 12 -->
    <_>
      <maxWeakCount>6</maxWeakCount>
      <stageThreshold>-1.1136912107467651e+00</stageThreshold>
      <weakClassifiers>
        <_>
          <internalNodes>
            0 -1 15 -2.9701426625251770e-01</internalNodes>
          <leafValues>
            9.2592591047286987e-01 -5.9466665983200073e-01</leafValues></_>
        <_>
          <internalNodes>
            0 -1 22 1.0787760838866234e-02</internalNodes>
          <leafValues>
            -8.5925501585006714e-01 2.9061007499694824e-01</leafValues></_>
        <_>
          <internalNodes>
            0 -1 88 3.0546329799108207e-04</internalNodes>
          <leafValues>
            3.1980672478675842e-01 -7.1505367755889893e-01</leafValues></_>
        <_>
          <internalNodes>
            0 -1 8 -1.1906955391168594e-02</internalNodes>
          <leafValues>
            -7.8935533761978149e-01 2.3055511713027954e-01</leafValues></_>
        <_>
          <internalNodes>
            0 -1 26 -1.6456626355648041e-02</internalNodes>
          <leafValues>
            -7.0455342531204224e-01 2.5139310956001282e-01</leafValues></_>
        <_>
          <internalNodes>
            0 -1 74 -1.2869812548160553e-02</internalNodes>
          <leafValues>
            4.9442201852798462e-01 -4.2741394042968750e-01</leafValues></_></weakClassifiers></_>
    <!-- stage 13 -->
    <_>
      <maxWeakCount>6</maxWeakCount>
      <stageThreshold>-1.2060378789901733e+00</stageThreshold>
      <weakClassifiers>
        <_>
          <internalNodes>
            0 -1 31 -1.3183161616325378e-01</internalNodes>
          <leafValues>
            8.5185188055038452e-01 -5.8933335542678833e-01</leafValues></_>
        <_>
          <internalNodes>
            0 -1 6 7.0347031578421593e-03</internalNodes>
          <leafValues>
            -7.3848801851272583e-01 3.2733252644538879e-01</leafValues></_>
        <_>
          <internalNodes>
            0 -1 89 8.6939148604869843e-03</internalNodes>
          <leafValues>
            2.4367421865463257e-01 -8.2329273223876953e-01</leafValues></_>
        <_>
          <internalNodes>
            0 -1 38 1.7897667363286018e-02</internalNodes>
          <leafValues>
            1.9602656364440918e-01 -9.1225588321685791e-01</leafValues></_>
        <_>
          <internalNodes>
            0 -1 63 2.4615745060145855e-03</internalNodes>
          <leafValues>
            -4.9973663687705994e-01 3.6256596446037292e-01</leafValues></_>
        <_>
          <internalNodes>
            0 -1 35 -1.6268942505121231e-02</internalNodes>
          <leafValues>
            -9.6536898612976074e-01 1.8296569585800171e-01</leafValues></_></weakClassifiers></_>
    <!-- stage 14 -->
    <_>
      <maxWeakCount>6</maxWeakCount>
      <stageThreshold>-1.0225862264633179e+00</stageThreshold>
      <weakClassifiers>
        <_>
          <internalNodes>
            0 -1 40 -2.8321927785873413e-01</internalNodes>
          <leafValues>
            8.5714286565780640e-01 -5.9358286857604980e-01</leafValues></_>
        <_>
          <internalNodes>
            0 -1 46 1.1361015960574150e-02</internalNodes>
          <leafValues>
            -8.2178366184234619e-01 2.5212976336479187e-01</leafValues></_>
        <_>
          <internalNodes>
            0 -1 36 -2.7072713710367680e-03</internalNodes>
          <leafValues>
            3.9518353343009949e-01 -5.0224447250366211e-01</leafValues></_>
        <_>
          <internalNodes>
            0 -1 12 2.9831936582922935e-02</internalNodes>
          <leafValues>
            2.1631228923797607e-01 -8.7497645616531372e-01</leafValues></_>
        <_>
          <internalNodes>
            0 -1 67 -2.0946908742189407e-02</internalNodes>
          <leafValues>
            5.7056874036788940e-01 -3.5099214315414429e-01</leafValues></_>
        <_>
          <internalNodes>
            0 -1 87 3.3169882372021675e-03</internalNodes>
          <leafValues>
            2.4925337731838226e-01 -7.8928416967391968e-01</leafValues></_></weakClassifiers></_>
    <!-- stage 15 -->
    <_>
      <maxWeakCount>6</maxWeakCount>
      <stageThreshold>-1.2326928377151489e+00</stageThreshold>
      <weakClassifiers>
        <_>
          <internalNodes>
            0 -1 86 7.9350825399160385e-03</internalNodes>
          <leafValues>
            -6.2711864709854126e-01 5.0000000000000000e-01</leafValues></_>
        <_>
          <internalNodes>
            0 -1 33 1.9262374844402075e-03</internalNodes>
          <leafValues>
            1.1047534644603729e-01 -8.8425546884536743e-01</leafValues></_>
        <_>
          <internalNodes>
            0 -1 72 1.0123220272362232e-03</internalNodes>
          <leafValues>
            -4.5279684662818909e-01 3.5466331243515015e-01</leafValues></_>
        <_>
          <internalNodes>
            0 -1 39 -6.8585854023694992e-04</internalNodes>
          <leafValues>
            -7.5650686025619507e-01 2.7381616830825806e-01</leafValues></_>
        <_>
          <internalNodes>
            0 -1 54 7.3817202064674348e-05</internalNodes>
          <leafValues>
            -6.2427961826324463e-01 3.1135156750679016e-01</leafValues></_>
        <_>
          <internalNodes>
            0 -1 37 1.7987094819545746e-02</internalNodes>
          <leafValues>
            2.7448141574859619e-01 -7.1654814481735229e-01</leafValues></_></weakClassifiers></_>
    <!-- stage 16 -->
    <_>
      <maxWeakCount>5</maxWeakCount>
      <stageThreshold>-1.4262001514434814e+00</stageThreshold>
      <weakClassifiers>
        <_>
          <internalNodes>
            0 -1 30 -5.7079158723354340e-02</internalNodes>
          <leafValues>
            3.4375000000000000e-01 -6.5088754892349243e-01</leafValues></_>
        <_>
          <internalNodes>
            0 -1 3 1.0018432512879372e-02</internalNodes>
          <leafValues>
            1.4339525997638702e-01 -8.7467753887176514e-01</leafValues></_>
        <_>
          <internalNodes>
            0 -1 83 5.5111020628828555e-05</internalNodes>
          <leafValues>
            -6.7200917005538940e-01 2.5205919146537781e-01</leafValues></_>
        <_>
          <internalNodes>
            0 -1 92 1.0067194234579802e-03</internalNodes>
          <leafValues>
            1.9782629609107971e-01 -8.0549275875091553e-01</leafValues></_>
        <_>
          <internalNodes>
            0 -1 1 -5.0212263886351138e-05</internalNodes>
          <leafValues>
            3.8428431749343872e-01 -4.4452500343322754e-01</leafValues></_></weakClassifiers></_>
    <!-- stage 17 -->
    <_>
      <maxWeakCount>5</maxWeakCount>
      <stageThreshold>-1.0719035863876343e+00</stageThreshold>
      <weakClassifiers>
        <_>
          <internalNodes>
            0 -1 58 -5.2548320963978767e-03</internalNodes>
          <leafValues>
            8.6206895112991333e-01 -5.9785521030426025e-01</leafValues></_>
        <_>
          <internalNodes>
            0 -1 81 -9.0849176049232483e-03</internalNodes>
          <leafValues>
            5.2812808752059937e-01 -4.8534455895423889e-01</leafValues></_>
        <_>
          <internalNodes>
            0 -1 71 7.6519902795553207e-03</internalNodes>
          <leafValues>
            -5.9846925735473633e-01 3.5276731848716736e-01</leafValues></_>
        <_>
          <internalNodes>
            0 -1 91 -2.9973129276186228e-03</internalNodes>
          <leafValues>
            4.2456537485122681e-01 -4.6806380152702332e-01</leafValues></_>
        <_>
          <internalNodes>
            0 -1 11 -1.9343428313732147e-02</internalNodes>
          <leafValues>
            -8.8687992095947266e-01 2.7006641030311584e-01</leafValues></_></weakClassifiers></_>
    <!-- stage 18 -->
    <_>
      <maxWeakCount>6</maxWeakCount>
      <stageThreshold>-9.6081656217575073e-01</stageThreshold>
      <weakClassifiers>
        <_>
          <internalNodes>
            0 -1 19 -2.3137763142585754e-02</internalNodes>
          <leafValues>
            5.1724135875701904e-01 -6.6279071569442749e-01</leafValues></_>
        <_>
          <internalNodes>
            0 -1 20 -1.7349157482385635e-02</internalNodes>
          <leafValues>
            4.2151531577110291e-01 -5.0738543272018433e-01</leafValues></_>
        <_>
          <internalNodes>
            0 -1 24 1.5336446464061737e-02</internalNodes>
          <leafValues>
            -5.3330457210540771e-01 4.5327210426330566e-01</leafValues></_>
        <_>
          <internalNodes>
            0 -1 43 -2.7895900420844555e-03</internalNodes>
          <leafValues>
            -8.0375826358795166e-01 2.6251459121704102e-01</leafValues></_>
        <_>
          <internalNodes>
            0 -1 85 1.1683069169521332e-03</internalNodes>
          <leafValues>
            -6.3693815469741821e-01 3.1430441141128540e-01</leafValues></_>
        <_>
          <internalNodes>
            0 -1 17 6.4555840799584985e-04</internalNodes>
          <leafValues>
            2.6788312196731567e-01 -8.1443637609481812e-01</leafValues></_></weakClassifiers></_></stages>
  <features>
    <_>
      <rects>
        <_>
          0 3 8 10 -1.</_>
        <_>
          4 3 4 10 2.</_></rects>
      <tilted>0</tilted></_>
    <_>
      <rects>
        <_>
          0 4 3 5 -1.</_>
        <_>
          1 4 1 5 3.</_></rects>
      <tilted>0</tilted></_>
    <_>
      <rects>
        <_>
          0 4 8 16 -1.</_>
        <_>
          4 4 4 16 2.</_></rects>
      <tilted>0</tilted></_>
    <_>
      <rects>
        <_>
          0 9 20 8 -1.</_>
        <_>
          0 13 20 4 2.</_></rects>
      <tilted>0</tilted></_>
    <_>
      <rects>
        <_>
          0 11 20 5 -1.</_>
        <_>
          10 11 10 5 2.</_></rects>
      <tilted>0</tilted></_>
    <_>
      <rects>
        <_>
          1 4 8 13 -1.</_>
        <_>
          5 4 4 13 2.</_></rects>
      <tilted>0</tilted></_>
    <_>
      <rects>
        <_>
          1 4 12 4 -1.</_>
        <_>
          1 4 6 2 2.</_>
        <_>
          7 6 6 2 2.</_></rects>
      <tilted>0</tilted></_>
    <_>
      <rects>
        <_>
          1 6 2 2 -1.</_>
        <_>
          1 6 1 1 2.</_>
        <_>
          2 7 1 1 2.</_></rects>
      <tilted>0</tilted></_>
    <_>
      <rects>
        <_>
          1 9 18 4 -1.</_>
        <_>
          1 9 9 2 2.</_>
        <_>
          10 11 9 2 2.</_></rects>
      <tilted>0</tilted></_>
    <_>
      <rects>
        <_>
          1 19 10 1 -1.</_>
        <_>
          6 19 5 1 2.</_></rects>
      <tilted>0</tilted></_>
    <_>
      <rects>
        <_>
          2 5 6 6 -1.</_>
        <_>
          2 7 6 2 3.</_></rects>
      <tilted>0</tilted></_>
    <_>
      <rects>
        <_>
          2 6 5 6 -1.</_>
        <_>
          2 8 5 2 3.</_></rects>
      <tilted>0</tilted></_>
    <_>
      <rects>
        <_>
          2 6 16 6 -1.</_>
        <_>
          2 6 8 3 2.</_>
        <_>
          10 9 8 3 2.</_></rects>
      <tilted>0</tilted></_>
    <_>
      <rects>
        <_>
          2 18 2 1 -1.</_>
        <_>
          3 18 1 1 2.</_></rects>
      <tilted>0</tilted></_>
    <_>
      <rects>
        <_>
          2 18 2 2 -1.</_>
        <_>
          3 18 1 2 2.</_></rects>
      <tilted>0</tilted></_>
    <_>
      <rects>
        <_>
          3 0 11 12 -1.</_>
        <_>
          3 6 11 6 2.</_></rects>
      <tilted>0</tilted></_>
    <_>
      <rects>
        <_>
          3 5 6 6 -1.</_>
        <_>
          3 5 3 3 2.</_>
        <_>
          6 8 3 3 2.</_></rects>
      <tilted>0</tilted></_>
    <_>
      <rects>
        <_>
          3 7 2 3 -1.</_>
        <_>
          3 8 2 1 3.</_></rects>
      <tilted>0</tilted></_>
    <_>
      <rects>
        <_>
          3 7 6 9 -1.</_>
        <_>
          3 10 6 3 3.</_></rects>
      <tilted>0</tilted></_>
    <_>
      <rects>
        <_>
          3 9 4 7 -1.</_>
        <_>
          5 9 2 7 2.</_></rects>
      <tilted>0</tilted></_>
    <_>
      <rects>
        <_>
          3 18 12 2 -1.</_>
        <_>
          7 18 4 2 3.</_></rects>
      <tilted>0</tilted></_>
    <_>
      <rects>
        <_>
          4 0 12 8 -1.</_>
        <_>
          4 4 12 4 2.</_></rects>
      <tilted>0</tilted></_>
    <_>
      <rects>
        <_>
          4 4 6 10 -1.</_>
        <_>
          4 9 6 5 2.</_></rects>
      <tilted>0</tilted></_>
    <_>
      <rects>
        <_>
          4 4 14 10 -1.</_>
        <_>
          4 4 7 5 2.</_>
        <_>
          11 9 7 5 2.</_></rects>
      <tilted>0</tilted></_>
    <_>
      <rects>
        <_>
          4 6 4 7 -1.</_>
        <_>
          6 6 2 7 2.</_></rects>
      <tilted>0</tilted></_>
    <_>
      <rects>
        <_>
          4 7 1 4 -1.</_>
        <_>
          4 9 1 2 2.</_></rects>
      <tilted>0</tilted></_>
    <_>
      <rects>
        <_>
          4 8 14 2 -1.</_>
        <_>
          11 8 7 2 2.</_></rects>
      <tilted>0</tilted></_>
    <_>
      <rects>
        <_>
          4 9 6 3 -1.</_>
        <_>
          6 9 2 3 3.</_></rects>
      <tilted>0</tilted></_>
    <_>
      <rects>
        <_>
          4 10 4 5 -1.</_>
        <_>
          6 10 2 5 2.</_></rects>
      <tilted>0</tilted></_>
    <_>
      <rects>
        <_>
          4 17 3 3 -1.</_>
        <_>
          5 17 1 3 3.</_></rects>
      <tilted>0</tilted></_>
    <_>
      <rects>
        <_>
          5 0 4 8 -1.</_>
        <_>
          5 4 4 4 2.</_></rects>
      <tilted>0</tilted></_>
    <_>
      <rects>
        <_>
          5 0 4 12 -1.</_>
        <_>
          5 6 4 6 2.</_></rects>
      <tilted>0</tilted></_>
    <_>
      <rects>
        <_>
          5 1 11 6 -1.</_>
        <_>
          5 4 11 3 2.</_></rects>
      <tilted>0</tilted></_>
    <_>
      <rects>
        <_>
          5 2 3 3 -1.</_>
        <_>
          6 2 1 3 3.</_></rects>
      <tilted>0</tilted></_>
    <_>
      <rects>
        <_>
          5 5 6 12 -1.</_>
        <_>
          7 5 2 12 3.</_></rects>
      <tilted>0</tilted></_>
    <_>
      <rects>
        <_>
          5 5 12 6 -1.</_>
        <_>
          5 5 6 3 2.</_>
        <_>
          11 8 6 3 2.</_></rects>
      <tilted>0</tilted></_>
    <_>
      <rects>
        <_>
          5 6 9 6 -1.</_>
        <_>
          5 8 9 2 3.</_></rects>
      <tilted>0</tilted></_>
    <_>
      <rects>
        <_>
          5 9 10 5 -1.</_>
        <_>
          10 9 5 5 2.</_></rects>
      <tilted>0</tilted></_>
    <_>
      <rects>
        <_>
          5 14 12 4 -1.</_>
        <_>
          9 14 4 4 3.</_></rects>
      <tilted>0</tilted></_>
    <_>
      <rects>
        <_>
          5 17 2 1 -1.</_>
        <_>
          6 17 1 1 2.</_></rects>
      <tilted>0</tilted></_>
    <_>
      <rects>
        <_>
          6 0 10 12 -1.</_>
        <_>
          6 6 10 6 2.</_></rects>
      <tilted>0</tilted></_>
    <_>
      <rects>
        <_>
          6 1 10 16 -1.</_>
        <_>
          6 1 5 8 2.</_>
        <_>
          11 9 5 8 2.</_></rects>
      <tilted>0</tilted></_>
    <_>
      <rects>
        <_>
          6 1 7 8 -1.</_>
        <_>
          6 5 7 4 2.</_></rects>
      <tilted>0</tilted></_>
    <_>
      <rects>
        <_>
          6 2 6 1 -1.</_>
        <_>
          8 2 2 1 3.</_></rects>
      <tilted>0</tilted></_>
    <_>
      <rects>
        <_>
          6 2 8 15 -1.</_>
        <_>
          10 2 4 15 2.</_></rects>
      <tilted>0</tilted></_>
    <_>
      <rects>
        <_>
          6 4 8 10 -1.</_>
        <_>
          10 4 4 10 2.</_></rects>
      <tilted>0</tilted></_>
    <_>
      <rects>
        <_>
          6 4 8 6 -1.</_>
        <_>
          6 7 8 3 2.</_></rects>
      <tilted>0</tilted></_>
    <_>
      <rects>
        <_>
          6 6 3 2 -1.</_>
        <_>
          7 6 1 2 3.</_></rects>
      <tilted>0</tilted></_>
    <_>
      <rects>
        <_>
          6 6 8 9 -1.</_>
        <_>
          6 9 8 3 3.</_></rects>
      <tilted>0</tilted></_>
    <_>
      <rects>
        <_>
          6 7 2 6 -1.</_>
        <_>
          7 7 1 6 2.</_></rects>
      <tilted>0</tilted></_>
    <_>
      <rects>
        <_>
          6 7 3 9 -1.</_>
        <_>
          6 10 3 3 3.</_></rects>
      <tilted>0</tilted></_>
    <_>
      <rects>
        <_>
          6 12 10 3 -1.</_>
        <_>
          11 12 5 3 2.</_></rects>
      <tilted>0</tilted></_>
    <_>
      <rects>
        <_>
          6 14 4 6 -1.</_>
        <_>
          8 14 2 6 2.</_></rects>
      <tilted>0</tilted></_>
    <_>
      <rects>
        <_>
          7 4 2 6 -1.</_>
        <_>
          7 7 2 3 2.</_></rects>
      <tilted>0</tilted></_>
    <_>
      <rects>
        <_>
          7 5 2 4 -1.</_>
        <_>
          7 5 1 2 2.</_>
        <_>
          8 7 1 2 2.</_></rects>
      <tilted>0</tilted></_>
    <_>
      <rects>
        <_>
          7 5 6 14 -1.</_>
        <_>
          9 5 2 14 3.</_></rects>
      <tilted>0</tilted></_>
    <_>
      <rects>
        <_>
          7 10 7 3 -1.</_>
        <_>
          7 11 7 1 3.</_></rects>
      <tilted>0</tilted></_>
    <_>
      <rects>
        <_>
          8 4 8 16 -1.</_>
        <_>
          8 4 4 8 2.</_>
        <_>
          12 12 4 8 2.</_></rects>
      <tilted>0</tilted></_>
    <_>
      <rects>
        <_>
          8 7 2 2 -1.</_>
        <_>
          8 7 1 1 2.</_>
        <_>
          9 8 1 1 2.</_></rects>
      <tilted>0</tilted></_>
    <_>
      <rects>
        <_>
          8 9 2 6 -1.</_>
        <_>
          8 9 1 3 2.</_>
        <_>
          9 12 1 3 2.</_></rects>
      <tilted>0</tilted></_>
    <_>
      <rects>
        <_>
          8 9 2 8 -1.</_>
        <_>
          8 9 1 4 2.</_>
        <_>
          9 13 1 4 2.</_></rects>
      <tilted>0</tilted></_>
    <_>
      <rects>
        <_>
          8 9 6 10 -1.</_>
        <_>
          11 9 3 10 2.</_></rects>
      <tilted>0</tilted></_>
    <_>
      <rects>
        <_>
          8 11 2 1 -1.</_>
        <_>
          9 11 1 1 2.</_></rects>
      <tilted>0</tilted></_>
    <_>
      <rects>
        <_>
          8 19 6 1 -1.</_>
        <_>
          11 19 3 1 2.</_></rects>
      <tilted>0</tilted></_>
    <_>
      <rects>
        <_>
          9 0 6 20 -1.</_>
        <_>
          9 0 3 10 2.</_>
        <_>
          12 10 3 10 2.</_></rects>
      <tilted>0</tilted></_>
    <_>
      <rects>
        <_>
          9 7 6 6 -1.</_>
        <_>
          11 7 2 6 3.</_></rects>
      <tilted>0</tilted></_>
    <_>
      <rects>
        <_>
          9 8 6 5 -1.</_>
        <_>
          11 8 2 5 3.</_></rects>
      <tilted>0</tilted></_>
    <_>
      <rects>
        <_>
          9 13 5 6 -1.</_>
        <_>
          9 15 5 2 3.</_></rects>
      <tilted>0</tilted></_>
    <_>
      <rects>
        <_>
          9 14 5 3 -1.</_>
        <_>
          9 15 5 1 3.</_></rects>
      <tilted>0</tilted></_>
    <_>
      <rects>
        <_>
          10 5 3 12 -1.</_>
        <_>
          11 5 1 12 3.</_></rects>
      <tilted>0</tilted></_>
    <_>
      <rects>
        <_>
          10 7 4 6 -1.</_>
        <_>
          10 10 4 3 2.</_></rects>
      <tilted>0</tilted></_>
    <_>
      <rects>
        <_>
          10 7 8 8 -1.</_>
        <_>
          10 11 8 4 2.</_></rects>
      <tilted>0</tilted></_>
    <_>
      <rects>
        <_>
          10 9 1 4 -1.</_>
        <_>
          10 11 1 2 2.</_></rects>
      <tilted>0</tilted></_>
    <_>
      <rects>
        <_>
          10 9 3 3 -1.</_>
        <_>
          11 9 1 3 3.</_></rects>
      <tilted>0</tilted></_>
    <_>
      <rects>
        <_>
          11 0 1 12 -1.</_>
        <_>
          11 4 1 4 3.</_></rects>
      <tilted>0</tilted></_>
    <_>
      <rects>
        <_>
          11 5 2 8 -1.</_>
        <_>
          11 5 1 4 2.</_>
        <_>
          12 9 1 4 2.</_></rects>
      <tilted>0</tilted></_>
    <_>
      <rects>
        <_>
          11 5 6 2 -1.</_>
        <_>
          13 5 2 2 3.</_></rects>
      <tilted>0</tilted></_>
    <_>
      <rects>
        <_>
          11 8 3 2 -1.</_>
        <_>
          12 8 1 2 3.</_></rects>
      <tilted>0</tilted></_>
    <_>
      <rects>
        <_>
          11 8 6 2 -1.</_>
        <_>
          11 9 6 1 2.</_></rects>
      <tilted>0</tilted></_>
    <_>
      <rects>
        <_>
          11 10 6 6 -1.</_>
        <_>
          11 10 3 3 2.</_>
        <_>
          14 13 3 3 2.</_></rects>
      <tilted>0</tilted></_>
    <_>
      <rects>
        <_>
          12 6 5 10 -1.</_>
        <_>
          12 11 5 5 2.</_></rects>
      <tilted>0</tilted></_>
    <_>
      <rects>
        <_>
          12 8 3 6 -1.</_>
        <_>
          13 8 1 6 3.</_></rects>
      <tilted>0</tilted></_>
    <_>
      <rects>
        <_>
          12 8 8 6 -1.</_>
        <_>
          16 8 4 6 2.</_></rects>
      <tilted>0</tilted></_>
    <_>
      <rects>
        <_>
          12 9 3 2 -1.</_>
        <_>
          12 10 3 1 2.</_></rects>
      <tilted>0</tilted></_>
    <_>
      <rects>
        <_>
          12 17 3 1 -1.</_>
        <_>
          13 17 1 1 3.</_></rects>
      <tilted>0</tilted></_>
    <_>
      <rects>
        <_>
          13 9 3 4 -1.</_>
        <_>
          13 11 3 2 2.</_></rects>
      <tilted>0</tilted></_>
    <_>
      <rects>
        <_>
          13 12 1 6 -1.</_>
        <_>
          13 15 1 3 2.</_></rects>
      <tilted>0</tilted></_>
    <_>
      <rects>
        <_>
          14 6 6 10 -1.</_>
        <_>
          14 6 3 5 2.</_>
        <_>
          17 11 3 5 2.</_></rects>
      <tilted>0</tilted></_>
    <_>
      <rects>
        <_>
          14 7 1 2 -1.</_>
        <_>
          14 8 1 1 2.</_></rects>
      <tilted>0</tilted></_>
    <_>
      <rects>
        <_>
          16 6 3 6 -1.</_>
        <_>
          16 9 3 3 2.</_></rects>
      <tilted>0</tilted></_>
    <_>
      <rects>
        <_>
          16 12 3 2 -1.</_>
        <_>
          16 13 3 1 2.</_></rects>
      <tilted>0</tilted></_>
    <_>
      <rects>
        <_>
          17 0 1 12 -1.</_>
        <_>
          17 6 1 6 2.</_></rects>
      <tilted>0</tilted></_>
    <_>
      <rects>
        <_>
          18 3 2 3 -1.</_>
        <_>
          18 4 2 1 3.</_></rects>
      <tilted>0</tilted></_>
    <_>
      <rects>
        <_>
          18 14 2 1 -1.</_>
        <_>
          19 14 1 1 2.</_></rects>
      <tilted>0</tilted></_></features></cascade>
</opencv_storage>
