<?xml version="1.0"?>
<opencv_storage>
<cascade>
  <stageType>BOOST</stageType>
  <featureType>HAAR</featureType>
  <height>20</height>
  <width>20</width>
  <stageParams>
    <boostType>GAB</boostType>
    <minHitRate>9.9500000476837158e-01</minHitRate>
    <maxFalseAlarm>5.0000000000000000e-01</maxFalseAlarm>
    <weightTrimRate>9.4999998807907104e-01</weightTrimRate>
    <maxDepth>1</maxDepth>
    <maxWeakCount>100</maxWeakCount></stageParams>
  <featureParams>
    <maxCatCount>0</maxCatCount>
    <featSize>1</featSize>
    <mode>BASIC</mode></featureParams>
  <stageNum>17</stageNum>
  <stages>
    <!-- stage 0 -->
    <_>
      <maxWeakCount>3</maxWeakCount>
      <stageThreshold>-1.1929953098297119e+00</stageThreshold>
      <weakClassifiers>
        <_>
          <internalNodes>
            0 -1 16 -4.2508393526077271e-02</internalNodes>
          <leafValues>
            7.9393941164016724e-01 -9.6601939201354980e-01</leafValues></_>
        <_>
          <internalNodes>
            0 -1 21 1.5595411881804466e-02</internalNodes>
          <leafValues>
            -8.5771137475967407e-01 7.1050322055816650e-01</leafValues></_>
        <_>
          <internalNodes>
            0 -1 28 -2.2316653281450272e-02</internalNodes>
          <leafValues>
            6.3073551654815674e-01 -9.2747718095779419e-01</leafValues></_></weakClassifiers></_>
    <!-- stage 1 -->
    <_>
      <maxWeakCount>3</maxWeakCount>
      <stageThreshold>-1.0418109893798828e+00</stageThreshold>
      <weakClassifiers>
        <_>
          <internalNodes>
            0 -1 56 5.4135084152221680e-02</internalNodes>
          <leafValues>
            -9.1836732625961304e-01 5.0270271301269531e-01</leafValues></_>
        <_>
          <internalNodes>
            0 -1 7 -9.2080906033515930e-02</internalNodes>
          <leafValues>
            5.9704440832138062e-01 -8.5558575391769409e-01</leafValues></_>
        <_>
          <internalNodes>
            0 -1 4 2.7726739645004272e-02</internalNodes>
          <leafValues>
            -6.6478770971298218e-01 7.3214203119277954e-01</leafValues></_></weakClassifiers></_>
    <!-- stage 2 -->
    <_>
      <maxWeakCount>5</maxWeakCount>
      <stageThreshold>-1.0872220993041992e+00</stageThreshold>
      <weakClassifiers>
        <_>
          <internalNodes>
            0 -1 17 -2.6839222759008408e-02</internalNodes>
          <leafValues>
            4.8684209585189819e-01 -8.0235296487808228e-01</leafValues></_>
        <_>
          <internalNodes>
            0 -1 52 -1.7513209953904152e-02</internalNodes>
          <leafValues>
            4.5357054471969604e-01 -8.8584488630294800e-01</leafValues></_>
        <_>
          <internalNodes>
            0 -1 8 -2.5198202580213547e-02</internalNodes>
          <leafValues>
            6.0116654634475708e-01 -6.9398218393325806e-01</leafValues></_>
        <_>
          <internalNodes>
            0 -1 49 4.9414098262786865e-02</internalNodes>
          <leafValues>
            -5.2324551343917847e-01 8.6118626594543457e-01</leafValues></_>
        <_>
          <internalNodes>
            0 -1 29 -1.7465129494667053e-03</internalNodes>
          <leafValues>
            5.2900832891464233e-01 -8.9595198631286621e-01</leafValues></_></weakClassifiers></_>
    <!-- stage 3 -->
    <_>
      <maxWeakCount>5</maxWeakCount>
      <stageThreshold>-1.7740423679351807e+00</stageThreshold>
      <weakClassifiers>
        <_>
          <internalNodes>
            0 -1 18 -9.2249549925327301e-02</internalNodes>
          <leafValues>
            4.9411764740943909e-01 -8.6240786314010620e-01</leafValues></_>
        <_>
          <internalNodes>
            0 -1 32 -1.6759533435106277e-02</internalNodes>
          <leafValues>
            5.8150893449783325e-01 -6.7066460847854614e-01</leafValues></_>
        <_>
          <internalNodes>
            0 -1 38 7.8408827539533377e-04</internalNodes>
          <leafValues>
            -8.2088387012481689e-01 4.1606348752975464e-01</leafValues></_>
        <_>
          <internalNodes>
            0 -1 70 -4.8531359061598778e-04</internalNodes>
          <leafValues>
            -9.6093606948852539e-01 3.0562564730644226e-01</leafValues></_>
        <_>
          <internalNodes>
            0 -1 2 -1.5429584309458733e-03</internalNodes>
          <leafValues>
            -9.6294450759887695e-01 2.7428829669952393e-01</leafValues></_></weakClassifiers></_>
    <!-- stage 4 -->
    <_>
      <maxWeakCount>5</maxWeakCount>
      <stageThreshold>-1.6043932437896729e+00</stageThreshold>
      <weakClassifiers>
        <_>
          <internalNodes>
            0 -1 32 -1.6704944893717766e-02</internalNodes>
          <leafValues>
            3.4054052829742432e-01 -8.4183675050735474e-01</leafValues></_>
        <_>
          <internalNodes>
            0 -1 19 -2.4316202849149704e-02</internalNodes>
          <leafValues>
            3.7478905916213989e-01 -7.8578436374664307e-01</leafValues></_>
        <_>
          <internalNodes>
            0 -1 67 -3.6029904149472713e-03</internalNodes>
          <leafValues>
            3.2751879096031189e-01 -9.1268312931060791e-01</leafValues></_>
        <_>
          <internalNodes>
            0 -1 3 2.7980254963040352e-03</internalNodes>
          <leafValues>
            -8.4699350595474243e-01 4.7377818822860718e-01</leafValues></_>
        <_>
          <internalNodes>
            0 -1 42 -2.6640800759196281e-02</internalNodes>
          <leafValues>
            5.4270249605178833e-01 -6.4496594667434692e-01</leafValues></_></weakClassifiers></_>
    <!-- stage 5 -->
    <_>
      <maxWeakCount>4</maxWeakCount>
      <stageThreshold>-6.2802243232727051e-01</stageThreshold>
      <weakClassifiers>
        <_>
          <internalNodes>
            0 -1 9 -2.5059871375560760e-02</internalNodes>
          <leafValues>
            6.8421053886413574e-01 -6.8879669904708862e-01</leafValues></_>
        <_>
          <internalNodes>
            0 -1 24 -1.9292039796710014e-02</internalNodes>
          <leafValues>
            2.9778575897216797e-01 -8.7647461891174316e-01</leafValues></_>
        <_>
          <internalNodes>
            0 -1 20 -5.8312412351369858e-02</internalNodes>
          <leafValues>
            6.2501496076583862e-01 -5.4603195190429688e-01</leafValues></_>
        <_>
          <internalNodes>
            0 -1 63 -5.7711038971319795e-04</internalNodes>
          <leafValues>
            -1. 3.1223386526107788e-01</leafValues></_></weakClassifiers></_>
    <!-- stage 6 -->
    <_>
      <maxWeakCount>4</maxWeakCount>
      <stageThreshold>-1.1099700927734375e+00</stageThreshold>
      <weakClassifiers>
        <_>
          <internalNodes>
            0 -1 63 4.6102874330244958e-04</internalNodes>
          <leafValues>
            1.3740457594394684e-01 -9.6190476417541504e-01</leafValues></_>
        <_>
          <internalNodes>
            0 -1 39 1.5578884631395340e-02</internalNodes>
          <leafValues>
            -9.7794908285140991e-01 2.2305765748023987e-01</leafValues></_>
        <_>
          <internalNodes>
            0 -1 31 -2.1154016256332397e-02</internalNodes>
          <leafValues>
            6.1704915761947632e-01 -5.9170621633529663e-01</leafValues></_>
        <_>
          <internalNodes>
            0 -1 61 -1.0531952138990164e-03</internalNodes>
          <leafValues>
            3.2228058576583862e-01 -1.</leafValues></_></weakClassifiers></_>
    <!-- stage 7 -->
    <_>
      <maxWeakCount>3</maxWeakCount>
      <stageThreshold>-1.4798530340194702e+00</stageThreshold>
      <weakClassifiers>
        <_>
          <internalNodes>
            0 -1 0 1.6838327050209045e-02</internalNodes>
          <leafValues>
            -8.1333333253860474e-01 1.8811881542205811e-01</leafValues></_>
        <_>
          <internalNodes>
            0 -1 59 -5.8144953800365329e-04</internalNodes>
          <leafValues>
            -9.5586997270584106e-01 2.5984799861907959e-01</leafValues></_>
        <_>
          <internalNodes>
            0 -1 62 4.6916570863686502e-04</internalNodes>
          <leafValues>
            2.8533595800399780e-01 -9.2636775970458984e-01</leafValues></_></weakClassifiers></_>
    <!-- stage 8 -->
    <_>
      <maxWeakCount>5</maxWeakCount>
      <stageThreshold>-1.7380856275558472e+00</stageThreshold>
      <weakClassifiers>
        <_>
          <internalNodes>
            0 -1 23 -3.1760871410369873e-02</internalNodes>
          <leafValues>
            5.0442475080490112e-01 -6.9827586412429810e-01</leafValues></_>
        <_>
          <internalNodes>
            0 -1 64 4.2243883945047855e-04</internalNodes>
          <leafValues>
            2.8940328955650330e-01 -9.1987138986587524e-01</leafValues></_>
        <_>
          <internalNodes>
            0 -1 26 -7.2994958609342575e-03</internalNodes>
          <leafValues>
            4.8709991574287415e-01 -6.8065863847732544e-01</leafValues></_>
        <_>
          <internalNodes>
            0 -1 50 3.2253556128125638e-05</internalNodes>
          <leafValues>
            -9.7534328699111938e-01 2.9469749331474304e-01</leafValues></_>
        <_>
          <internalNodes>
            0 -1 14 8.8899292051792145e-02</internalNodes>
          <leafValues>
            2.6602277159690857e-01 -9.7266650199890137e-01</leafValues></_></weakClassifiers></_>
    <!-- stage 9 -->
    <_>
      <maxWeakCount>4</maxWeakCount>
      <stageThreshold>-1.2941012382507324e+00</stageThreshold>
      <weakClassifiers>
        <_>
          <internalNodes>
            0 -1 27 -2.1445751190185547e-02</internalNodes>
          <leafValues>
            1.5577889978885651e-01 -7.8835976123809814e-01</leafValues></_>
        <_>
          <internalNodes>
            0 -1 66 -3.1453653355129063e-04</internalNodes>
          <leafValues>
            -9.2406070232391357e-01 2.4620893597602844e-01</leafValues></_>
        <_>
          <internalNodes>
            0 -1 41 -1.6791536472737789e-03</internalNodes>
          <leafValues>
            3.6977112293243408e-01 -7.4983954429626465e-01</leafValues></_>
        <_>
          <internalNodes>
            0 -1 53 -3.6472906358540058e-03</internalNodes>
          <leafValues>
            -9.4624954462051392e-01 2.7466288208961487e-01</leafValues></_></weakClassifiers></_>
    <!-- stage 10 -->
    <_>
      <maxWeakCount>4</maxWeakCount>
      <stageThreshold>-7.8562676906585693e-01</stageThreshold>
      <weakClassifiers>
        <_>
          <internalNodes>
            0 -1 25 4.3741213157773018e-03</internalNodes>
          <leafValues>
            -7.8571426868438721e-01 2.2162161767482758e-01</leafValues></_>
        <_>
          <internalNodes>
            0 -1 44 1.9110857974737883e-03</internalNodes>
          <leafValues>
            -8.6743122339248657e-01 2.5084915757179260e-01</leafValues></_>
        <_>
          <internalNodes>
            0 -1 47 -6.5680585801601410e-02</internalNodes>
          <leafValues>
            6.8136900663375854e-01 -4.7559607028961182e-01</leafValues></_>
        <_>
          <internalNodes>
            0 -1 55 -1.5371607150882483e-03</internalNodes>
          <leafValues>
            -7.8250145912170410e-01 3.8879245519638062e-01</leafValues></_></weakClassifiers></_>
    <!-- stage 11 -->
    <_>
      <maxWeakCount>5</maxWeakCount>
      <stageThreshold>-1.6637724637985229e+00</stageThreshold>
      <weakClassifiers>
        <_>
          <internalNodes>
            0 -1 60 -4.9684494733810425e-03</internalNodes>
          <leafValues>
            4.6428570151329041e-01 -6.8602150678634644e-01</leafValues></_>
        <_>
          <internalNodes>
            0 -1 22 -1.7980532720685005e-02</internalNodes>
          <leafValues>
            3.6257159709930420e-01 -7.3765999078750610e-01</leafValues></_>
        <_>
          <internalNodes>
            0 -1 5 -2.4829019093886018e-04</internalNodes>
          <leafValues>
            -9.6200782060623169e-01 2.5711667537689209e-01</leafValues></_>
        <_>
          <internalNodes>
            0 -1 5 1.7340267368126661e-04</internalNodes>
          <leafValues>
            2.6145651936531067e-01 -8.9605391025543213e-01</leafValues></_>
        <_>
          <internalNodes>
            0 -1 33 -3.0730880098417401e-04</internalNodes>
          <leafValues>
            3.3422893285751343e-01 -7.5866413116455078e-01</leafValues></_></weakClassifiers></_>
    <!-- stage 12 -->
    <_>
      <maxWeakCount>5</maxWeakCount>
      <stageThreshold>-1.1376029253005981e+00</stageThreshold>
      <weakClassifiers>
        <_>
          <internalNodes>
            0 -1 11 -3.1200375407934189e-02</internalNodes>
          <leafValues>
            2.0958083868026733e-01 -7.3658537864685059e-01</leafValues></_>
        <_>
          <internalNodes>
            0 -1 35 -3.6697752773761749e-02</internalNodes>
          <leafValues>
            6.9424992799758911e-01 -5.5276596546173096e-01</leafValues></_>
        <_>
          <internalNodes>
            0 -1 68 -5.5539105087518692e-03</internalNodes>
          <leafValues>
            -9.2373526096343994e-01 3.2205191254615784e-01</leafValues></_>
        <_>
          <internalNodes>
            0 -1 43 -1.3277046382427216e-02</internalNodes>
          <leafValues>
            5.7782560586929321e-01 -5.0392353534698486e-01</leafValues></_>
        <_>
          <internalNodes>
            0 -1 58 -1.4148808550089598e-03</internalNodes>
          <leafValues>
            -1. 3.3362001180648804e-01</leafValues></_></weakClassifiers></_>
    <!-- stage 13 -->
    <_>
      <maxWeakCount>5</maxWeakCount>
      <stageThreshold>-1.5444393157958984e+00</stageThreshold>
      <weakClassifiers>
        <_>
          <internalNodes>
            0 -1 65 2.7971096642431803e-05</internalNodes>
          <leafValues>
            -7.4876844882965088e-01 2.1637426316738129e-01</leafValues></_>
        <_>
          <internalNodes>
            0 -1 38 7.6991145033389330e-04</internalNodes>
          <leafValues>
            -8.1665498018264771e-01 2.7435022592544556e-01</leafValues></_>
        <_>
          <internalNodes>
            0 -1 1 2.9642373323440552e-02</internalNodes>
          <leafValues>
            2.4717389047145844e-01 -9.1066879034042358e-01</leafValues></_>
        <_>
          <internalNodes>
            0 -1 15 -5.5896627600304782e-05</internalNodes>
          <leafValues>
            3.9003357291221619e-01 -6.6383767127990723e-01</leafValues></_>
        <_>
          <internalNodes>
            0 -1 13 -2.7612480334937572e-04</internalNodes>
          <leafValues>
            4.3810766935348511e-01 -6.1622327566146851e-01</leafValues></_></weakClassifiers></_>
    <!-- stage 14 -->
    <_>
      <maxWeakCount>5</maxWeakCount>
      <stageThreshold>-1.4994763135910034e+00</stageThreshold>
      <weakClassifiers>
        <_>
          <internalNodes>
            0 -1 30 -4.7419711947441101e-02</internalNodes>
          <leafValues>
            3.6065572500228882e-01 -6.8351650238037109e-01</leafValues></_>
        <_>
          <internalNodes>
            0 -1 37 -1.7709281295537949e-02</internalNodes>
          <leafValues>
            4.6863523125648499e-01 -6.4945334196090698e-01</leafValues></_>
        <_>
          <internalNodes>
            0 -1 46 1.6533844172954559e-02</internalNodes>
          <leafValues>
            -7.4247050285339355e-01 3.8595199584960938e-01</leafValues></_>
        <_>
          <internalNodes>
            0 -1 57 5.2589894039556384e-04</internalNodes>
          <leafValues>
            3.0723655223846436e-01 -8.8519322872161865e-01</leafValues></_>
        <_>
          <internalNodes>
            0 -1 69 -3.5079556255368516e-05</internalNodes>
          <leafValues>
            2.6872748136520386e-01 -9.4192546606063843e-01</leafValues></_></weakClassifiers></_>
    <!-- stage 15 -->
    <_>
      <maxWeakCount>6</maxWeakCount>
      <stageThreshold>-1.2109707593917847e+00</stageThreshold>
      <weakClassifiers>
        <_>
          <internalNodes>
            0 -1 48 4.7073438763618469e-02</internalNodes>
          <leafValues>
            -6.4040404558181763e-01 6.0975611209869385e-01</leafValues></_>
        <_>
          <internalNodes>
            0 -1 54 1.2250397412572056e-04</internalNodes>
          <leafValues>
            -7.8609734773635864e-01 3.1067800521850586e-01</leafValues></_>
        <_>
          <internalNodes>
            0 -1 10 -5.0793658010661602e-03</internalNodes>
          <leafValues>
            4.0155020356178284e-01 -6.2471145391464233e-01</leafValues></_>
        <_>
          <internalNodes>
            0 -1 36 8.6065016686916351e-02</internalNodes>
          <leafValues>
            -3.3350849151611328e-01 7.7568072080612183e-01</leafValues></_>
        <_>
          <internalNodes>
            0 -1 40 1.7029413720592856e-04</internalNodes>
          <leafValues>
            -6.2857693433761597e-01 4.8645734786987305e-01</leafValues></_>
        <_>
          <internalNodes>
            0 -1 12 -1.7788909375667572e-02</internalNodes>
          <leafValues>
            7.0555204153060913e-01 -3.5945400595664978e-01</leafValues></_></weakClassifiers></_>
    <!-- stage 16 -->
    <_>
      <maxWeakCount>4</maxWeakCount>
      <stageThreshold>-8.8081890344619751e-01</stageThreshold>
      <weakClassifiers>
        <_>
          <internalNodes>
            0 -1 6 5.5838925763964653e-03</internalNodes>
          <leafValues>
            -7.0796459913253784e-01 4.2399999499320984e-01</leafValues></_>
        <_>
          <internalNodes>
            0 -1 34 -2.8839169317507185e-05</internalNodes>
          <leafValues>
            3.9143061637878418e-01 -7.1142637729644775e-01</leafValues></_>
        <_>
          <internalNodes>
            0 -1 45 7.9752523452043533e-03</internalNodes>
          <leafValues>
            -6.1339902877807617e-01 3.7974554300308228e-01</leafValues></_>
        <_>
          <internalNodes>
            0 -1 51 -3.0906306346878409e-04</internalNodes>
          <leafValues>
            -9.4403046369552612e-01 2.7497586607933044e-01</leafValues></_></weakClassifiers></_></stages>
  <features>
    <_>
      <rects>
        <_>
          0 7 6 6 -1.</_>
        <_>
          0 9 6 2 3.</_></rects>
      <tilted>0</tilted></_>
    <_>
      <rects>
        <_>
          0 9 20 9 -1.</_>
        <_>
          10 9 10 9 2.</_></rects>
      <tilted>0</tilted></_>
    <_>
      <rects>
        <_>
          0 10 4 3 -1.</_>
        <_>
          2 10 2 3 2.</_></rects>
      <tilted>0</tilted></_>
    <_>
      <rects>
        <_>
          0 11 3 6 -1.</_>
        <_>
          0 14 3 3 2.</_></rects>
      <tilted>0</tilted></_>
    <_>
      <rects>
        <_>
          0 11 5 9 -1.</_>
        <_>
          0 14 5 3 3.</_></rects>
      <tilted>0</tilted></_>
    <_>
      <rects>
        <_>
          0 12 3 1 -1.</_>
        <_>
          1 12 1 1 3.</_></rects>
      <tilted>0</tilted></_>
    <_>
      <rects>
        <_>
          0 14 2 6 -1.</_>
        <_>
          1 14 1 6 2.</_></rects>
      <tilted>0</tilted></_>
    <_>
      <rects>
        <_>
          0 14 18 3 -1.</_>
        <_>
          6 14 6 3 3.</_></rects>
      <tilted>0</tilted></_>
    <_>
      <rects>
        <_>
          0 14 14 1 -1.</_>
        <_>
          7 14 7 1 2.</_></rects>
      <tilted>0</tilted></_>
    <_>
      <rects>
        <_>
          0 15 8 1 -1.</_>
        <_>
          4 15 4 1 2.</_></rects>
      <tilted>0</tilted></_>
    <_>
      <rects>
        <_>
          1 9 2 6 -1.</_>
        <_>
          1 11 2 2 3.</_></rects>
      <tilted>0</tilted></_>
    <_>
      <rects>
        <_>
          1 9 10 6 -1.</_>
        <_>
          1 11 10 2 3.</_></rects>
      <tilted>0</tilted></_>
    <_>
      <rects>
        <_>
          2 0 1 14 -1.</_>
        <_>
          2 7 1 7 2.</_></rects>
      <tilted>0</tilted></_>
    <_>
      <rects>
        <_>
          2 6 2 3 -1.</_>
        <_>
          2 7 2 1 3.</_></rects>
      <tilted>0</tilted></_>
    <_>
      <rects>
        <_>
          2 8 18 7 -1.</_>
        <_>
          11 8 9 7 2.</_></rects>
      <tilted>0</tilted></_>
    <_>
      <rects>
        <_>
          2 11 1 2 -1.</_>
        <_>
          2 12 1 1 2.</_></rects>
      <tilted>0</tilted></_>
    <_>
      <rects>
        <_>
          2 14 15 2 -1.</_>
        <_>
          7 14 5 2 3.</_></rects>
      <tilted>0</tilted></_>
    <_>
      <rects>
        <_>
          3 0 6 10 -1.</_>
        <_>
          3 0 3 5 2.</_>
        <_>
          6 5 3 5 2.</_></rects>
      <tilted>0</tilted></_>
    <_>
      <rects>
        <_>
          3 5 6 14 -1.</_>
        <_>
          6 5 3 14 2.</_></rects>
      <tilted>0</tilted></_>
    <_>
      <rects>
        <_>
          3 9 9 3 -1.</_>
        <_>
          6 9 3 3 3.</_></rects>
      <tilted>0</tilted></_>
    <_>
      <rects>
        <_>
          3 14 13 6 -1.</_>
        <_>
          3 16 13 2 3.</_></rects>
      <tilted>0</tilted></_>
    <_>
      <rects>
        <_>
          3 16 7 4 -1.</_>
        <_>
          3 18 7 2 2.</_></rects>
      <tilted>0</tilted></_>
    <_>
      <rects>
        <_>
          3 16 16 4 -1.</_>
        <_>
          3 16 8 2 2.</_>
        <_>
          11 18 8 2 2.</_></rects>
      <tilted>0</tilted></_>
    <_>
      <rects>
        <_>
          4 8 6 4 -1.</_>
        <_>
          6 8 2 4 3.</_></rects>
      <tilted>0</tilted></_>
    <_>
      <rects>
        <_>
          4 13 6 3 -1.</_>
        <_>
          7 13 3 3 2.</_></rects>
      <tilted>0</tilted></_>
    <_>
      <rects>
        <_>
          4 14 6 2 -1.</_>
        <_>
          4 14 3 1 2.</_>
        <_>
          7 15 3 1 2.</_></rects>
      <tilted>0</tilted></_>
    <_>
      <rects>
        <_>
          5 0 4 10 -1.</_>
        <_>
          5 0 2 5 2.</_>
        <_>
          7 5 2 5 2.</_></rects>
      <tilted>0</tilted></_>
    <_>
      <rects>
        <_>
          5 7 6 4 -1.</_>
        <_>
          7 7 2 4 3.</_></rects>
      <tilted>0</tilted></_>
    <_>
      <rects>
        <_>
          5 13 9 3 -1.</_>
        <_>
          8 13 3 3 3.</_></rects>
      <tilted>0</tilted></_>
    <_>
      <rects>
        <_>
          5 18 14 2 -1.</_>
        <_>
          5 18 7 1 2.</_>
        <_>
          12 19 7 1 2.</_></rects>
      <tilted>0</tilted></_>
    <_>
      <rects>
        <_>
          6 6 7 9 -1.</_>
        <_>
          6 9 7 3 3.</_></rects>
      <tilted>0</tilted></_>
    <_>
      <rects>
        <_>
          6 8 7 6 -1.</_>
        <_>
          6 10 7 2 3.</_></rects>
      <tilted>0</tilted></_>
    <_>
      <rects>
        <_>
          6 13 6 2 -1.</_>
        <_>
          8 13 2 2 3.</_></rects>
      <tilted>0</tilted></_>
    <_>
      <rects>
        <_>
          8 1 4 3 -1.</_>
        <_>
          10 1 2 3 2.</_></rects>
      <tilted>0</tilted></_>
    <_>
      <rects>
        <_>
          8 4 3 2 -1.</_>
        <_>
          9 4 1 2 3.</_></rects>
      <tilted>0</tilted></_>
    <_>
      <rects>
        <_>
          8 4 5 9 -1.</_>
        <_>
          8 7 5 3 3.</_></rects>
      <tilted>0</tilted></_>
    <_>
      <rects>
        <_>
          8 4 6 8 -1.</_>
        <_>
          8 8 6 4 2.</_></rects>
      <tilted>0</tilted></_>
    <_>
      <rects>
        <_>
          8 4 8 6 -1.</_>
        <_>
          8 6 8 2 3.</_></rects>
      <tilted>0</tilted></_>
    <_>
      <rects>
        <_>
          8 8 2 5 -1.</_>
        <_>
          9 8 1 5 2.</_></rects>
      <tilted>0</tilted></_>
    <_>
      <rects>
        <_>
          8 13 8 3 -1.</_>
        <_>
          12 13 4 3 2.</_></rects>
      <tilted>0</tilted></_>
    <_>
      <rects>
        <_>
          8 14 1 4 -1.</_>
        <_>
          8 16 1 2 2.</_></rects>
      <tilted>0</tilted></_>
    <_>
      <rects>
        <_>
          8 17 12 2 -1.</_>
        <_>
          8 17 6 1 2.</_>
        <_>
          14 18 6 1 2.</_></rects>
      <tilted>0</tilted></_>
    <_>
      <rects>
        <_>
          9 1 9 9 -1.</_>
        <_>
          12 1 3 9 3.</_></rects>
      <tilted>0</tilted></_>
    <_>
      <rects>
        <_>
          9 2 3 6 -1.</_>
        <_>
          9 4 3 2 3.</_></rects>
      <tilted>0</tilted></_>
    <_>
      <rects>
        <_>
          9 8 2 11 -1.</_>
        <_>
          10 8 1 11 2.</_></rects>
      <tilted>0</tilted></_>
    <_>
      <rects>
        <_>
          9 12 6 5 -1.</_>
        <_>
          11 12 2 5 3.</_></rects>
      <tilted>0</tilted></_>
    <_>
      <rects>
        <_>
          9 12 9 5 -1.</_>
        <_>
          12 12 3 5 3.</_></rects>
      <tilted>0</tilted></_>
    <_>
      <rects>
        <_>
          10 0 9 10 -1.</_>
        <_>
          13 0 3 10 3.</_></rects>
      <tilted>0</tilted></_>
    <_>
      <rects>
        <_>
          10 0 10 3 -1.</_>
        <_>
          15 0 5 3 2.</_></rects>
      <tilted>0</tilted></_>
    <_>
      <rects>
        <_>
          10 2 4 10 -1.</_>
        <_>
          10 7 4 5 2.</_></rects>
      <tilted>0</tilted></_>
    <_>
      <rects>
        <_>
          10 13 6 5 -1.</_>
        <_>
          12 13 2 5 3.</_></rects>
      <tilted>0</tilted></_>
    <_>
      <rects>
        <_>
          10 18 3 1 -1.</_>
        <_>
          11 18 1 1 3.</_></rects>
      <tilted>0</tilted></_>
    <_>
      <rects>
        <_>
          12 12 7 6 -1.</_>
        <_>
          12 15 7 3 2.</_></rects>
      <tilted>0</tilted></_>
    <_>
      <rects>
        <_>
          12 13 6 7 -1.</_>
        <_>
          14 13 2 7 3.</_></rects>
      <tilted>0</tilted></_>
    <_>
      <rects>
        <_>
          12 15 2 3 -1.</_>
        <_>
          13 15 1 3 2.</_></rects>
      <tilted>0</tilted></_>
    <_>
      <rects>
        <_>
          13 18 6 2 -1.</_>
        <_>
          13 19 6 1 2.</_></rects>
      <tilted>0</tilted></_>
    <_>
      <rects>
        <_>
          14 4 6 15 -1.</_>
        <_>
          14 9 6 5 3.</_></rects>
      <tilted>0</tilted></_>
    <_>
      <rects>
        <_>
          14 14 6 1 -1.</_>
        <_>
          16 14 2 1 3.</_></rects>
      <tilted>0</tilted></_>
    <_>
      <rects>
        <_>
          14 14 6 3 -1.</_>
        <_>
          16 14 2 3 3.</_></rects>
      <tilted>0</tilted></_>
    <_>
      <rects>
        <_>
          14 16 6 4 -1.</_>
        <_>
          16 16 2 4 3.</_></rects>
      <tilted>0</tilted></_>
    <_>
      <rects>
        <_>
          15 12 4 3 -1.</_>
        <_>
          15 13 4 1 3.</_></rects>
      <tilted>0</tilted></_>
    <_>
      <rects>
        <_>
          16 12 1 6 -1.</_>
        <_>
          16 15 1 3 2.</_></rects>
      <tilted>0</tilted></_>
    <_>
      <rects>
        <_>
          17 11 3 5 -1.</_>
        <_>
          18 11 1 5 3.</_></rects>
      <tilted>0</tilted></_>
    <_>
      <rects>
        <_>
          17 12 3 5 -1.</_>
        <_>
          18 12 1 5 3.</_></rects>
      <tilted>0</tilted></_>
    <_>
      <rects>
        <_>
          17 13 3 4 -1.</_>
        <_>
          18 13 1 4 3.</_></rects>
      <tilted>0</tilted></_>
    <_>
      <rects>
        <_>
          17 15 2 2 -1.</_>
        <_>
          18 15 1 2 2.</_></rects>
      <tilted>0</tilted></_>
    <_>
      <rects>
        <_>
          18 14 2 3 -1.</_>
        <_>
          19 14 1 3 2.</_></rects>
      <tilted>0</tilted></_>
    <_>
      <rects>
        <_>
          19 10 1 10 -1.</_>
        <_>
          19 15 1 5 2.</_></rects>
      <tilted>0</tilted></_>
    <_>
      <rects>
        <_>
          19 13 1 6 -1.</_>
        <_>
          19 16 1 3 2.</_></rects>
      <tilted>0</tilted></_>
    <_>
      <rects>
        <_>
          19 14 1 4 -1.</_>
        <_>
          19 16 1 2 2.</_></rects>
      <tilted>0</tilted></_>
    <_>
      <rects>
        <_>
          19 17 1 2 -1.</_>
        <_>
          19 18 1 1 2.</_></rects>
      <tilted>0</tilted></_></features></cascade>
</opencv_storage>
